#include "qpe.h"
#include "common/neuron-typedefs.h"
#include "param_defs.h"
precision_t encoders1[1*150]={
-8.7233009396,
31.7049772924,
-12.7168198922,
19.6786576525,
8.37178852991,
9.02964389192,
21.6759225884,
-17.4644991153,
14.1368506347,
37.5756643524,
9.83038525638,
-6.71043541993,
3.95281403953,
-8.49439244732,
-11.4128694724,
-27.3239717405,
17.5053367189,
40.7398745574,
12.517127563,
-80.4646339096,
-11.7686607696,
-5.28391495004,
-5.76809388963,
-51.1445427285,
-36.7758056808,
8.08855367388,
112.882483814,
17.3141419358,
-22.0140034044,
-29.697165806,
44.2868529489,
3.97370712511,
6.09044157226,
-102.524107396,
117.23329325,
-32.0965438224,
-7.61755963974,
104.52680627,
-349.303290519,
-4.36276395729,
3.65236932208,
20.1507373275,
-58.1469189464,
-20.1345837702,
7.38671519796,
-20.8041341549,
-7.40398687739,
7.62385369451,
-55.9230606591,
-48.5939579803,
-5.55852288645,
-5.8047580182,
7.248961582,
-26.0082161548,
4.73608011047,
-4.94786771473,
-3.9983372335,
9.68485071869,
7.12530125203,
8.09649297393,
-15.4200166267,
-20.4252877024,
6.98933071431,
8.47111406513,
-7.97445298543,
-21.492473425,
9.51995695414,
-6.41475580686,
-121.182835528,
41.0341772633,
-12.5876588222,
15.9399248942,
22.7909000114,
18.5908901232,
60.8020191606,
102.302873778,
-5.58276427718,
-39.3452613739,
-97.7891327716,
-55.4679940252,
34.3768389544,
5.15263893083,
-5.60460782307,
10.2971469742,
-7.37362932888,
-66.5615756406,
-38.6271080627,
-91.4248035291,
3.51620780727,
10.7809264107,
-14.7835457563,
6.01090330295,
13.0936185079,
6.63981321603,
9.20215678878,
-31.1071596505,
-7.72045940103,
29.2863661429,
22.1496909167,
-5.17483459891,
-38.451271844,
16.628723749,
21.2652613287,
-28.991894045,
-11.8919787051,
-18.1161706955,
-37.8012689071,
-44.8737119217,
18.1812383288,
1784.02274287,
-6.97193599312,
-14.6556507555,
6.59246409957,
-11.9782494457,
63.8747395789,
-19.7064047069,
62.5595674044,
-20.1112741508,
7.92544592958,
-4.66845523012,
-15.9016578171,
70.2059479482,
23.347083689,
9.58375063689,
-32.4097789024,
-17.8884563907,
-46.1530648856,
-10.1330999465,
-10.3842845633,
6.61427075739,
21.9344940004,
66.9963025507,
25.9446656686,
81.5404253311,
-5.03036864658,
-14.1695602962,
247.59843645,
-11.6389232854,
15.8419057133,
-83.6124437727,
11.2577424992,
-61.6630199594,
7.71402119986,
-36.5126598066,
-69.6537792764,
-7.02276759798,
-3.86071789768,
-12.2101289233,
35.2922822307,
-78.6695795041
};
precision_t bias1[150]={
3.63612474372,
2.03734137365,
-0.0245200635371,
17.489869117,
1.1744415621,
5.69103328034,
-5.46926983556,
0.0306365893702,
-0.920319691911,
-21.0632938606,
0.483187448841,
3.85063935794,
4.10979756179,
8.07770242852,
3.81683599447,
10.1608979607,
8.01861568623,
-19.2272918437,
-1.43456995359,
-70.3675071432,
9.62018645084,
4.78040592063,
2.27941008094,
-39.2223517808,
-19.930309956,
1.65419402345,
-104.363312308,
12.5603328499,
-7.50490298487,
-22.4707207701,
-33.8114390133,
3.72177036144,
4.49487784647,
-88.7682653802,
-108.291893165,
2.80904169478,
6.98381673992,
-74.9505404252,
-321.835296558,
4.22051610954,
4.60037763825,
-2.97216003649,
-50.6172064759,
5.56374302752,
4.47299477957,
1.70535607539,
2.22193455225,
4.06309083397,
-36.1862175313,
-38.4633764967,
4.26801279628,
6.46190281451,
0.0185979427044,
-4.10839355288,
3.80348605343,
5.29958580678,
3.89336667773,
4.52271421647,
3.75080058746,
7.78426311575,
5.37183013247,
-10.7675898835,
4.9209390383,
8.72991180242,
2.39491928368,
11.7461498688,
-1.89770934011,
2.60997602181,
-109.939304615,
-20.003314735,
-4.34282653374,
15.2830923746,
9.70451371793,
1.23784896568,
-47.8929785703,
-91.3322844922,
6.54424109538,
-8.53791869544,
-81.4926836093,
-21.2303140017,
-18.8816146927,
4.74268782842,
2.70557536633,
10.419183005,
3.86009094112,
-47.1969044358,
-4.20089986016,
-84.0505011849,
4.28864084071,
1.18095434375,
-3.30361363385,
6.95889971472,
1.09773396599,
6.82190098148,
-0.890009316752,
-19.1749316563,
0.910456679377,
-19.4286670386,
-4.0362918371,
2.57099551313,
-27.293849492,
1.5933126895,
-10.4906381757,
-12.9596701127,
2.25967028484,
0.703550534464,
-9.17561788286,
-33.8357678505,
12.8341934017,
-1764.22994273,
6.48962841371,
11.5351900956,
7.35758420698,
8.6522426403,
-33.4516789477,
-7.97013873027,
-47.7604200689,
-6.84631369953,
0.649166527071,
3.75269123624,
-7.47760581672,
-39.7562640938,
8.51529903077,
2.47323812598,
-1.28913634066,
17.292309117,
-21.8847871336,
0.155552550603,
10.9212957955,
4.16132472223,
7.67566220811,
-33.1759864316,
13.2811610062,
-58.3017699037,
5.28271617713,
12.7746444776,
-237.596085038,
-3.0665477982,
-6.8273985759,
-73.0572645097,
6.55346659465,
-34.916796463,
2.84347195067,
-19.4501272087,
-38.6430222359,
7.60272797455,
3.81928685061,
4.47296355305,
-1.39728311585,
-65.3006376624
};
precision_t decoders1[150*1]={
0.0,
0.0,
0.0,
0.0,
0.0,
0.0,
0.0,
0.0,
0.0,
0.0,
0.0,
0.0,
0.0,
0.0,
0.0,
0.0,
0.0,
0.0,
0.0,
0.0,
0.0,
0.0,
0.0,
0.0,
0.0,
0.0,
0.0,
0.0,
0.0,
0.0,
0.0,
0.0,
0.0,
0.0,
0.0,
0.0,
0.0,
0.0,
0.0,
0.0,
0.0,
0.0,
0.0,
0.0,
0.0,
0.0,
0.0,
0.0,
0.0,
0.0,
0.0,
0.0,
0.0,
0.0,
0.0,
0.0,
0.0,
0.0,
0.0,
0.0,
0.0,
0.0,
0.0,
0.0,
0.0,
0.0,
0.0,
0.0,
0.0,
0.0,
0.0,
0.0,
0.0,
0.0,
0.0,
0.0,
0.0,
0.0,
0.0,
0.0,
0.0,
0.0,
0.0,
0.0,
0.0,
0.0,
0.0,
0.0,
0.0,
0.0,
0.0,
0.0,
0.0,
0.0,
0.0,
0.0,
0.0,
0.0,
0.0,
0.0,
0.0,
0.0,
0.0,
0.0,
0.0,
0.0,
0.0,
0.0,
0.0,
0.0,
0.0,
0.0,
0.0,
0.0,
0.0,
0.0,
0.0,
0.0,
0.0,
0.0,
0.0,
0.0,
0.0,
0.0,
0.0,
0.0,
0.0,
0.0,
0.0,
0.0,
0.0,
0.0,
0.0,
0.0,
0.0,
0.0,
0.0,
0.0,
0.0,
0.0,
0.0,
0.0,
0.0,
0.0,
0.0,
0.0,
0.0,
0.0,
0.0,
0.0
};
precision_t inputs1[1];
precision_t outputs1[1];
neuron_t neurons1[150];
precision_t input_currents1[150];
REAL learning_activity1[150];
REAL error1[1];
REAL delta1[150];
ensemble_t ensembles[1];
uint32_t n_ensembles= 1;
void ensemble_init(){
ensembles[0].encoders = encoders1;
ensembles[0].bias     = bias1;
ensembles[0].decoders = decoders1;
ensembles[0].n_inputs = 1;
ensembles[0].n_neurons= 150;
ensembles[0].n_outputs= 1;
ensembles[0].tau_rc   = 20.0;
ensembles[0].tau_ref  = 2.0;
ensembles[0].obj_id   = 1;
ensembles[0].inputs   = inputs1;
ensembles[0].outputs  = outputs1;
ensembles[0].neurons  = neurons1;
ensembles[0].input_currents= input_currents1;
ensembles[0].learning_activity= learning_activity1;
ensembles[0].learning_enabled = 1;
ensembles[0].learning_rate = 0.000666666666667;
ensembles[0].learning_scale = 0.904837418036;
ensembles[0].error = error1;
ensembles[0].delta = delta1;
}
precision_t pre_values3[1];
precision_t post_values3[1];
precision_t matrix3[1*1]={
1.0
};
message_t mess[1];
uint32_t n_mess= 1;
void mess_init(){

mess[0].pre_obj_id = 3;
mess[0].pre_start  = 0;
mess[0].pre_len    = 1;
mess[0].post_obj_id= 1;
mess[0].post_start = 0;
mess[0].post_len   = 1;
mess[0].mess_id    = 3;
mess[0].use_synapse_scale= 0;
mess[0].synapse_scale= 0;
mess[0].pre_values = pre_values3;
mess[0].post_values = post_values3;
mess[0].ens_input = &inputs1[0];
mess[0].matrix      = matrix3;
mess[0].matrix_is_scalar = 1;
}
