#include "qpe.h"
#include "common/neuron-typedefs.h"
#include "param_defs.h"
precision_t encoders2[1*150]={
31.4508768255,
36.9376045086,
8.88725909695,
-3.52750130112,
-47.7578830894,
-21.66636242,
13.2797132708,
21.1140485112,
11.0840797634,
11.4151431812,
-5.42984318027,
3.54644845132,
-23.3720077997,
-11.3643018648,
-16.0766152679,
-33.5721756499,
8.53458471736,
15.9779799422,
-20.0198259188,
109.778746764,
-59.0822330394,
-20.5353671991,
-10.2894832407,
-5.26155233583,
8.78794236687,
-68.6663453533,
21.5757834233,
-6.50250497782,
84.5261273334,
-13.6104548192,
-19.1307539895,
-45.5519588083,
25.2907932205,
14.1678959567,
-16.2293426933,
-14.9068722356,
9.59205669279,
68.7016701849,
-7.49145873612,
-10.1277954477,
-6.80319440842,
54.7956283758,
6.48823863117,
-135.603289616,
-39.1391175529,
59.5829347274,
-47.7665612363,
-14.4113183946,
23.4005288977,
21.5331514752,
6.28891327609,
18.3072033156,
-8.79392839051,
881.197124698,
26.1951127414,
19.7227934496,
-11.7927313439,
-10.5576314314,
246.800286783,
343.125260754,
-14.6024248264,
21.1918571143,
-17.7451668855,
-18.8508102526,
-9.10223318162,
-31.64980606,
16.4955813057,
10.9170465453,
-13.0975470579,
28.8617494447,
12.7234351985,
-16.031882437,
-15.2977806096,
12.1167136418,
-22.0867610733,
-87.8245159637,
26.1420410432,
23.223505432,
20.8673598204,
4.64429202101,
-5.55526567263,
-41.550092592,
8.03778636565,
10.9454747013,
19.8769016793,
39.8275128028,
-14.2026070968,
10.6750302885,
-3.44878340452,
-6.85919721361,
-5.63882012797,
12.0948592865,
60.4901479371,
-8.0178027361,
11.1141042011,
-5.72202308259,
7.38777921867,
-216.954160215,
-7.80007113046,
17.0629804184,
-59.2155794541,
-9.65171967762,
-14.8666854733,
21.6309279859,
15.1331172006,
5.57958213725,
179.943017482,
-33.1596066332,
7.79711939065,
14.4296264168,
-6.14348902359,
24.5480138604,
-32.0253087772,
17.635777082,
5.09746218406,
18.4278458442,
9.21298792024,
18.295286478,
11.8441734652,
-51.843719801,
53.4832076016,
-13.2321417042,
-6.21634339095,
14.0040170763,
16.7647784188,
17.5585200221,
-6.62695941315,
7.78707118267,
-9.757554627,
-4.88523620528,
-7.57363860716,
59.3455886395,
-20.9260891795,
28.4642657101,
-19.6604893535,
17.2309977031,
63.0259150922,
-15.7224263588,
-5.50035240236,
-10.6064937235,
-132.020389279,
14.7294632268,
14.9292100325,
-6.62509504129,
9.22184828983,
-11.2110254222,
-7.11779779477,
18.6649157103,
52.197174007,
6.53788186746
};
precision_t bias2[150]={
-8.66879784906,
-24.9467834035,
6.22874470377,
4.0053503702,
-16.7017160494,
15.9313096505,
10.6468123226,
10.1821589396,
-1.78663309068,
0.913743885709,
3.46084735305,
4.23818703522,
-10.555323853,
5.21376383022,
10.2464907567,
-3.40127167508,
1.86365953365,
14.2335878255,
12.5520674515,
-91.0789853316,
-33.6302859117,
15.9363616293,
5.74240323617,
3.36499627951,
0.803100327194,
-50.5504728053,
-0.47026811228,
6.54546597893,
-73.0532183341,
11.1649918343,
2.91740127853,
-15.6766752106,
-5.78452778013,
6.44282845512,
-1.05721777492,
-1.90104627256,
9.34254445457,
-50.3689336363,
2.56249757592,
2.32425971805,
1.42843665865,
-34.2366976825,
2.46286300588,
-120.186315486,
-0.241202497705,
-27.1566639922,
-24.4847765481,
12.7309863664,
-1.79005765455,
15.9858447149,
3.1162136662,
1.16670553673,
4.46747740102,
-868.574073205,
10.7438129708,
7.64642641603,
-0.480564642975,
6.43625480861,
-225.420804281,
-325.713769476,
-1.8943613561,
-13.2179189051,
4.63455347366,
4.20469379484,
3.70993978894,
-23.7202920571,
-8.61991330703,
11.447860521,
9.57199189386,
2.38830636981,
0.0157223815159,
2.13577146339,
5.25645768428,
11.4002763649,
14.4562011292,
-75.2503601967,
-7.38890894367,
6.64150736643,
9.58899125983,
5.02813833991,
4.83553940906,
-29.0318551821,
2.68142637864,
-0.742174405252,
12.8807755573,
-21.4870021446,
11.1447026034,
6.12723119019,
4.31857582007,
7.36266643832,
4.37287406863,
-1.20543225244,
-34.4986246222,
6.03628973957,
7.13357697601,
4.74266313889,
-0.138831711682,
-206.803634034,
0.604933020973,
17.4682657714,
-25.9339419604,
5.92784206012,
14.4283679876,
-10.461536782,
13.6288618546,
5.01957032013,
-163.147335824,
-21.4375560723,
3.37850190032,
4.02590278293,
4.59457692846,
-3.08610967536,
7.19289730827,
14.0747685255,
3.65523227357,
-11.0654967273,
6.70782493776,
12.6637097645,
10.2437891432,
-22.1988550859,
-33.4200157639,
-0.200994874704,
5.86024173459,
8.1890736953,
8.05446252245,
9.93351308894,
3.05440940169,
3.70572782043,
-2.3017963414,
4.99289122274,
6.23861243051,
-33.1418674746,
13.6916517316,
-2.15887035399,
-0.326076968345,
0.0336726832698,
-53.6164630389,
6.95037339497,
5.98232435322,
9.54834000127,
-115.410691696,
0.487308060211,
7.43244104312,
2.26051809562,
5.85800191168,
-2.74926060354,
6.25346312005,
-2.90306890823,
-25.150923975,
4.0153622072
};
precision_t decoders2[150*1]={
0.0,
0.0,
0.0,
0.0,
0.0,
0.0,
0.0,
0.0,
0.0,
0.0,
0.0,
0.0,
0.0,
0.0,
0.0,
0.0,
0.0,
0.0,
0.0,
0.0,
0.0,
0.0,
0.0,
0.0,
0.0,
0.0,
0.0,
0.0,
0.0,
0.0,
0.0,
0.0,
0.0,
0.0,
0.0,
0.0,
0.0,
0.0,
0.0,
0.0,
0.0,
0.0,
0.0,
0.0,
0.0,
0.0,
0.0,
0.0,
0.0,
0.0,
0.0,
0.0,
0.0,
0.0,
0.0,
0.0,
0.0,
0.0,
0.0,
0.0,
0.0,
0.0,
0.0,
0.0,
0.0,
0.0,
0.0,
0.0,
0.0,
0.0,
0.0,
0.0,
0.0,
0.0,
0.0,
0.0,
0.0,
0.0,
0.0,
0.0,
0.0,
0.0,
0.0,
0.0,
0.0,
0.0,
0.0,
0.0,
0.0,
0.0,
0.0,
0.0,
0.0,
0.0,
0.0,
0.0,
0.0,
0.0,
0.0,
0.0,
0.0,
0.0,
0.0,
0.0,
0.0,
0.0,
0.0,
0.0,
0.0,
0.0,
0.0,
0.0,
0.0,
0.0,
0.0,
0.0,
0.0,
0.0,
0.0,
0.0,
0.0,
0.0,
0.0,
0.0,
0.0,
0.0,
0.0,
0.0,
0.0,
0.0,
0.0,
0.0,
0.0,
0.0,
0.0,
0.0,
0.0,
0.0,
0.0,
0.0,
0.0,
0.0,
0.0,
0.0,
0.0,
0.0,
0.0,
0.0,
0.0,
0.0
};
precision_t inputs2[1];
precision_t outputs2[1];
neuron_t neurons2[150];
precision_t input_currents2[150];
REAL learning_activity2[150];
REAL error2[1];
REAL delta2[150];
ensemble_t ensembles[1];
uint32_t n_ensembles= 1;
void ensemble_init(){
ensembles[0].encoders = encoders2;
ensembles[0].bias     = bias2;
ensembles[0].decoders = decoders2;
ensembles[0].n_inputs = 1;
ensembles[0].n_neurons= 150;
ensembles[0].n_outputs= 1;
ensembles[0].tau_rc   = 20.0;
ensembles[0].tau_ref  = 2.0;
ensembles[0].obj_id   = 2;
ensembles[0].inputs   = inputs2;
ensembles[0].outputs  = outputs2;
ensembles[0].neurons  = neurons2;
ensembles[0].input_currents= input_currents2;
ensembles[0].learning_activity= learning_activity2;
ensembles[0].learning_enabled = 1;
ensembles[0].learning_rate = 0.000222222222222;
ensembles[0].learning_scale = 0.904837418036;
ensembles[0].error = error2;
ensembles[0].delta = delta2;
}
precision_t pre_values4[1];
precision_t post_values4[1];
precision_t matrix4[1*1]={
1.0
};
message_t mess[1];
uint32_t n_mess= 1;
void mess_init(){

mess[0].pre_obj_id = 3;
mess[0].pre_start  = 0;
mess[0].pre_len    = 1;
mess[0].post_obj_id= 2;
mess[0].post_start = 0;
mess[0].post_len   = 1;
mess[0].mess_id    = 4;
mess[0].use_synapse_scale= 0;
mess[0].synapse_scale= 0;
mess[0].pre_values = pre_values4;
mess[0].post_values = post_values4;
mess[0].ens_input = &inputs2[0];
mess[0].matrix      = matrix4;
mess[0].matrix_is_scalar = 1;
}
