#include "qpe.h"
#include "common/neuron-typedefs.h"
#include "param_defs.h"
precision_t encoders0[1*150]={
17.8435005637,
45.2190536264,
22.0806677133,
-31.9157863308,
12.2557837931,
86.9902780325,
4.09272716526,
-14.2811644409,
5.26211255113,
-26.174307124,
11.9139657349,
89.8190210171,
-29.352205408,
16.2189809742,
-18.201487122,
-10.5329554314,
-26.4884240032,
-9.71814864562,
17.9143105118,
26.1211346549,
5.60095038301,
4.57144110645,
-4.18902316305,
3.97833104745,
-54.0632161838,
-15.5412197658,
-7.35481300707,
3.64889015709,
-19.7405166936,
11.2876666129,
10.8890236826,
-14.972117378,
27.534587979,
25.3488774064,
-19.8382518554,
11.94189634,
-11.196792614,
13.9155130339,
21.9109727797,
7.23964429545,
21.707891831,
18.3006036563,
38.5016074605,
-10.1777793265,
5.57288289311,
-12.0977657136,
21.1423325341,
-22.5449060257,
21.8264211334,
-36.4390337017,
18.8846913053,
-37.6905287923,
-12.5226238975,
4.11602405292,
-12.8998056481,
-301.556292656,
-8.84365399446,
7.0336270326,
-19.2013140551,
29.1785854976,
-13.8944442407,
21.1613680457,
-6.71492983831,
-31.6546364716,
47.454742742,
-65.8627576255,
13.8180164716,
6.35148732016,
84.9651214418,
-35.6385103511,
10.0734827631,
9.86857513866,
-115.17399145,
16.7016114728,
35.593978353,
20.5478211552,
-47.4996204236,
28.4410254203,
32.7900488115,
-10.775878669,
-10.299114567,
-51.0085356701,
5.61867250304,
4.66288122812,
-11.0557053077,
-38.7091589744,
5.82242720428,
10.0979599238,
33.578829557,
36.1351792883,
61.7521556743,
-18.0103705523,
22.0215018627,
-81.7175427291,
-17.2566588195,
23.9854204177,
13.7613048069,
18.9134507753,
12.8031442053,
-7.7946163588,
-6.64665811668,
6.21634863364,
-28.7038841815,
19.5126826794,
-16.0307112444,
29.3211986128,
-29.9828711325,
11.5969590037,
4.27530576739,
16.6024830863,
4.80309631297,
20.3324925489,
20.6682340983,
38.0020983168,
-17.5525751182,
7.01971809155,
14.8151955688,
-9.48254137121,
-18.095138443,
16.0594495246,
13.2574118323,
18.4166739267,
14.5634334626,
-13.5293868403,
-10.2530662492,
14.4750206387,
3.8778065742,
-5.42166793033,
9.04041792047,
-22.7598114848,
-58.7902340594,
4.3440839576,
-47.477459437,
-16.4127516747,
34.0753927249,
23.7600716187,
13.3147142482,
-9.25339070464,
10.1713323914,
-14.4542646375,
-6.32836168565,
10.2812995327,
10.8786295107,
52.6456372308,
15.3207442985,
-1198.60892104,
15.4097773603,
8.8513352882,
36.2649982036,
-12.1816788923
};
precision_t bias0[150]={
17.7897082097,
-35.4765082274,
4.51658618226,
5.71518845678,
-4.91345821587,
-77.0230425532,
4.49915462219,
10.3484191634,
2.8695497721,
14.169642083,
1.1073452754,
-57.2852892029,
-19.7797420643,
-2.10852801401,
10.4584488753,
7.60431708371,
-11.8940621817,
6.1075856996,
-0.414904164892,
-12.0229940149,
4.04412656317,
3.97599730246,
4.85611574012,
3.80417567013,
-36.9998352033,
13.2888803661,
5.06507802745,
4.40983530963,
-5.9627422123,
7.05689098485,
2.88180366246,
11.8008504021,
7.76154279311,
4.83085080962,
2.07265618785,
2.84283014095,
9.89570474312,
-6.58618850621,
16.8983387644,
2.09619256067,
10.9007040872,
8.28334952888,
-12.2769538083,
0.637941300171,
4.45421714947,
1.74680863103,
7.78496062007,
-8.22074023405,
12.9567229243,
-24.1420687278,
0.00932175096086,
0.953295937807,
7.16900000194,
3.58358162447,
1.72705722733,
-289.594370301,
7.49290043528,
4.04608897769,
-10.5454112106,
-8.61591364244,
7.14805790828,
8.84462042237,
2.07508371025,
-5.50735518575,
-19.8173295437,
-46.0655705232,
-4.00520256398,
4.34111016496,
-71.3427939702,
-19.0427703953,
4.88067867351,
4.84942244015,
-86.8013532954,
13.4901838835,
-8.50080408951,
10.1350380364,
-30.0837824932,
8.70618414383,
-14.3041712571,
7.62893498734,
1.38218165383,
-29.9718346631,
2.15757900513,
4.15608011333,
-2.29420709939,
-18.6120577854,
3.55962475901,
1.98229195209,
-25.8932115506,
-25.8835349515,
-24.5885630664,
-2.2743069605,
-12.9784685175,
-65.6234375719,
18.1701146162,
5.93007046829,
-0.690154751489,
-7.84858744665,
11.5632914287,
2.56274282582,
3.92956535271,
1.95097635373,
1.11604218727,
-5.24465256109,
1.12067473866,
-6.06454407294,
-3.94356751041,
2.66225248367,
5.23275480588,
11.1435721441,
2.72712951179,
15.3556292513,
-3.07841640417,
-7.47442814858,
0.996726107839,
3.51518041311,
-3.54109602646,
6.87379937769,
18.8823040962,
-6.54607898051,
2.49798566964,
-6.28717053717,
10.1737004423,
12.8349717905,
3.49952146984,
-4.67410706764,
4.08038709168,
4.29817156158,
1.83257456891,
-4.51466543793,
-28.4097261758,
4.39068766649,
-10.8336245073,
4.69744755762,
-10.5917922276,
15.0868533147,
0.256538377447,
7.06721593321,
10.7913109486,
1.37724918328,
4.99727451658,
-1.84469842824,
0.204232181948,
-27.9493494673,
4.27986792286,
-1172.32338088,
0.531089839074,
1.37488235274,
-17.0920615075,
-0.770930896234
};
precision_t decoders0[150*1]={
0.0,
0.0,
0.0,
0.0,
0.0,
0.0,
0.0,
0.0,
0.0,
0.0,
0.0,
0.0,
0.0,
0.0,
0.0,
0.0,
0.0,
0.0,
0.0,
0.0,
0.0,
0.0,
0.0,
0.0,
0.0,
0.0,
0.0,
0.0,
0.0,
0.0,
0.0,
0.0,
0.0,
0.0,
0.0,
0.0,
0.0,
0.0,
0.0,
0.0,
0.0,
0.0,
0.0,
0.0,
0.0,
0.0,
0.0,
0.0,
0.0,
0.0,
0.0,
0.0,
0.0,
0.0,
0.0,
0.0,
0.0,
0.0,
0.0,
0.0,
0.0,
0.0,
0.0,
0.0,
0.0,
0.0,
0.0,
0.0,
0.0,
0.0,
0.0,
0.0,
0.0,
0.0,
0.0,
0.0,
0.0,
0.0,
0.0,
0.0,
0.0,
0.0,
0.0,
0.0,
0.0,
0.0,
0.0,
0.0,
0.0,
0.0,
0.0,
0.0,
0.0,
0.0,
0.0,
0.0,
0.0,
0.0,
0.0,
0.0,
0.0,
0.0,
0.0,
0.0,
0.0,
0.0,
0.0,
0.0,
0.0,
0.0,
0.0,
0.0,
0.0,
0.0,
0.0,
0.0,
0.0,
0.0,
0.0,
0.0,
0.0,
0.0,
0.0,
0.0,
0.0,
0.0,
0.0,
0.0,
0.0,
0.0,
0.0,
0.0,
0.0,
0.0,
0.0,
0.0,
0.0,
0.0,
0.0,
0.0,
0.0,
0.0,
0.0,
0.0,
0.0,
0.0,
0.0,
0.0,
0.0,
0.0
};
precision_t inputs0[1];
precision_t outputs0[1];
neuron_t neurons0[150];
precision_t input_currents0[150];
REAL learning_activity0[150];
REAL error0[1];
REAL delta0[150];
ensemble_t ensembles[1];
uint32_t n_ensembles= 1;
void ensemble_init(){
ensembles[0].encoders = encoders0;
ensembles[0].bias     = bias0;
ensembles[0].decoders = decoders0;
ensembles[0].n_inputs = 1;
ensembles[0].n_neurons= 150;
ensembles[0].n_outputs= 1;
ensembles[0].tau_rc   = 20.0;
ensembles[0].tau_ref  = 2.0;
ensembles[0].obj_id   = 0;
ensembles[0].inputs   = inputs0;
ensembles[0].outputs  = outputs0;
ensembles[0].neurons  = neurons0;
ensembles[0].input_currents= input_currents0;
ensembles[0].learning_activity= learning_activity0;
ensembles[0].learning_enabled = 1;
ensembles[0].learning_rate = 0.000222222222222;
ensembles[0].learning_scale = 0.904837418036;
ensembles[0].error = error0;
ensembles[0].delta = delta0;
}
precision_t pre_values2[1];
precision_t post_values2[1];
precision_t matrix2[1*1]={
1.0
};
message_t mess[1];
uint32_t n_mess= 1;
void mess_init(){

mess[0].pre_obj_id = 3;
mess[0].pre_start  = 0;
mess[0].pre_len    = 1;
mess[0].post_obj_id= 0;
mess[0].post_start = 0;
mess[0].post_len   = 1;
mess[0].mess_id    = 2;
mess[0].use_synapse_scale= 0;
mess[0].synapse_scale= 0;
mess[0].pre_values = pre_values2;
mess[0].post_values = post_values2;
mess[0].ens_input = &inputs0[0];
mess[0].matrix      = matrix2;
mess[0].matrix_is_scalar = 1;
}
